<?xml version="1.0"?>
<opencv_storage>
<stage11>
  <maxWeakCount>17</maxWeakCount>
  <stageThreshold>-1.2915856838226318e+00</stageThreshold>
  <weakClassifiers>
    <_>
      <internalNodes>
        0 -1 154064 -2.5795938447117805e-02</internalNodes>
      <leafValues>
        1. -6.8776369094848633e-01</leafValues></_>
    <_>
      <internalNodes>
        0 -1 144252 1.9091228023171425e-03</internalNodes>
      <leafValues>
        5.5037166923284531e-02 -6.0923582315444946e-01</leafValues></_>
    <_>
      <internalNodes>
        0 -1 145469 1.6943270748015493e-04</internalNodes>
      <leafValues>
        -2.1948350965976715e-01 3.3967471122741699e-01</leafValues></_>
    <_>
      <internalNodes>
        0 -1 110116 3.6580773303285241e-04</internalNodes>
      <leafValues>
        -1.9276224076747894e-01 3.7522029876708984e-01</leafValues></_>
    <_>
      <internalNodes>
        0 -1 96318 -8.3207385614514351e-03</internalNodes>
      <leafValues>
        -6.7815470695495605e-01 1.1416258662939072e-01</leafValues></_>
    <_>
      <internalNodes>
        0 -1 161261 -2.7790933381766081e-04</internalNodes>
      <leafValues>
        -4.9465376138687134e-01 1.6987013816833496e-01</leafValues></_>
    <_>
      <internalNodes>
        0 -1 156870 1.7392586451023817e-03</internalNodes>
      <leafValues>
        -1.6355389356613159e-01 4.7295561432838440e-01</leafValues></_>
    <_>
      <internalNodes>
        0 -1 88758 4.0320768952369690e-02</internalNodes>
      <leafValues>
        -3.0040702223777771e-01 2.7712723612785339e-01</leafValues></_>
    <_>
      <internalNodes>
        0 -1 69196 1.8561539053916931e-01</internalNodes>
      <leafValues>
        1.1477921158075333e-01 -7.2612416744232178e-01</leafValues></_>
    <_>
      <internalNodes>
        0 -1 25526 1.2980693951249123e-02</internalNodes>
      <leafValues>
        -1.7239400744438171e-01 5.6443554162979126e-01</leafValues></_>
    <_>
      <internalNodes>
        0 -1 7 -1.6905521973967552e-02</internalNodes>
      <leafValues>
        9.8097167909145355e-02 -8.5735934972763062e-01</leafValues></_>
    <_>
      <internalNodes>
        0 -1 154855 5.8727973373606801e-04</internalNodes>
      <leafValues>
        -2.0319904386997223e-01 4.2490428686141968e-01</leafValues></_>
    <_>
      <internalNodes>
        0 -1 138633 9.5732836052775383e-03</internalNodes>
      <leafValues>
        -2.0272357761859894e-01 3.6918193101882935e-01</leafValues></_>
    <_>
      <internalNodes>
        0 -1 71794 -1.3875281438231468e-02</internalNodes>
      <leafValues>
        3.8893458247184753e-01 -2.1859616041183472e-01</leafValues></_>
    <_>
      <internalNodes>
        0 -1 52321 1.4461528509855270e-02</internalNodes>
      <leafValues>
        -1.4165355265140533e-01 6.7190456390380859e-01</leafValues></_>
    <_>
      <internalNodes>
        0 -1 125749 -7.2304182685911655e-04</internalNodes>
      <leafValues>
        5.2679657936096191e-01 -1.6967992484569550e-01</leafValues></_>
    <_>
      <internalNodes>
        0 -1 44399 3.4957928583025932e-03</internalNodes>
      <leafValues>
        -1.7694820463657379e-01 4.4590175151824951e-01</leafValues></_></weakClassifiers></stage11>
</opencv_storage>
